digraph Tree {
node [shape=box] ;
0 [label="X[0] <= 5.55\nentropy = 1.585\nsamples = 150\nvalue = [50, 50, 50]"] ;
1 [label="X[1] <= 2.8\nentropy = 0.8128\nsamples = 59\nvalue = [47, 11, 1]"] ;
0 -> 1 [labeldistance=2.5, labelangle=45, headlabel="True"] ;
2 [label="X[0] <= 4.95\nentropy = 0.8167\nsamples = 12\nvalue = [1, 10, 1]"] ;
1 -> 2 ;
3 [label="X[0] <= 4.7\nentropy = 1.585\nsamples = 3\nvalue = [1, 1, 1]"] ;
2 -> 3 ;
4 [label="entropy = 0.0\nsamples = 1\nvalue = [1, 0, 0]"] ;
3 -> 4 ;
5 [label="X[1] <= 2.45\nentropy = 1.0\nsamples = 2\nvalue = [0, 1, 1]"] ;
3 -> 5 ;
6 [label="entropy = 0.0\nsamples = 1\nvalue = [0, 1, 0]"] ;
5 -> 6 ;
7 [label="entropy = 0.0\nsamples = 1\nvalue = [0, 0, 1]"] ;
5 -> 7 ;
8 [label="entropy = 0.0\nsamples = 9\nvalue = [0, 9, 0]"] ;
2 -> 8 ;
9 [label="X[0] <= 5.35\nentropy = 0.1485\nsamples = 47\nvalue = [46, 1, 0]"] ;
1 -> 9 ;
10 [label="entropy = 0.0\nsamples = 39\nvalue = [39, 0, 0]"] ;
9 -> 10 ;
11 [label="X[1] <= 3.2\nentropy = 0.5436\nsamples = 8\nvalue = [7, 1, 0]"] ;
9 -> 11 ;
12 [label="entropy = 0.0\nsamples = 1\nvalue = [0, 1, 0]"] ;
11 -> 12 ;
13 [label="entropy = 0.0\nsamples = 7\nvalue = [7, 0, 0]"] ;
11 -> 13 ;
14 [label="X[1] <= 3.7\nentropy = 1.1671\nsamples = 91\nvalue = [3, 39, 49]"] ;
0 -> 14 [labeldistance=2.5, labelangle=-45, headlabel="False"] ;
15 [label="X[0] <= 6.25\nentropy = 0.9937\nsamples = 86\nvalue = [0, 39, 47]"] ;
14 -> 15 ;
16 [label="X[0] <= 5.75\nentropy = 0.909\nsamples = 37\nvalue = [0, 25, 12]"] ;
15 -> 16 ;
17 [label="X[1] <= 2.85\nentropy = 0.65\nsamples = 12\nvalue = [0, 10, 2]"] ;
16 -> 17 ;
18 [label="X[1] <= 2.55\nentropy = 0.8631\nsamples = 7\nvalue = [0, 5, 2]"] ;
17 -> 18 ;
19 [label="X[0] <= 5.65\nentropy = 1.0\nsamples = 2\nvalue = [0, 1, 1]"] ;
18 -> 19 ;
20 [label="entropy = 0.0\nsamples = 1\nvalue = [0, 1, 0]"] ;
19 -> 20 ;
21 [label="entropy = 0.0\nsamples = 1\nvalue = [0, 0, 1]"] ;
19 -> 21 ;
22 [label="X[0] <= 5.65\nentropy = 0.7219\nsamples = 5\nvalue = [0, 4, 1]"] ;
18 -> 22 ;
23 [label="X[1] <= 2.75\nentropy = 1.0\nsamples = 2\nvalue = [0, 1, 1]"] ;
22 -> 23 ;
24 [label="entropy = 0.0\nsamples = 1\nvalue = [0, 1, 0]"] ;
23 -> 24 ;
25 [label="entropy = 0.0\nsamples = 1\nvalue = [0, 0, 1]"] ;
23 -> 25 ;
26 [label="entropy = 0.0\nsamples = 3\nvalue = [0, 3, 0]"] ;
22 -> 26 ;
27 [label="entropy = 0.0\nsamples = 5\nvalue = [0, 5, 0]"] ;
17 -> 27 ;
28 [label="X[1] <= 2.95\nentropy = 0.971\nsamples = 25\nvalue = [0, 15, 10]"] ;
16 -> 28 ;
29 [label="X[1] <= 2.85\nentropy = 0.9367\nsamples = 17\nvalue = [0, 11, 6]"] ;
28 -> 29 ;
30 [label="X[0] <= 5.9\nentropy = 0.9852\nsamples = 14\nvalue = [0, 8, 6]"] ;
29 -> 30 ;
31 [label="X[1] <= 2.65\nentropy = 1.0\nsamples = 6\nvalue = [0, 3, 3]"] ;
30 -> 31 ;
32 [label="entropy = 0.0\nsamples = 1\nvalue = [0, 1, 0]"] ;
31 -> 32 ;
33 [label="X[1] <= 2.75\nentropy = 0.971\nsamples = 5\nvalue = [0, 2, 3]"] ;
31 -> 33 ;
34 [label="entropy = 1.0\nsamples = 4\nvalue = [0, 2, 2]"] ;
33 -> 34 ;
35 [label="entropy = 0.0\nsamples = 1\nvalue = [0, 0, 1]"] ;
33 -> 35 ;
36 [label="X[1] <= 2.65\nentropy = 0.9544\nsamples = 8\nvalue = [0, 5, 3]"] ;
30 -> 36 ;
37 [label="X[1] <= 2.4\nentropy = 1.0\nsamples = 4\nvalue = [0, 2, 2]"] ;
36 -> 37 ;
38 [label="X[0] <= 6.1\nentropy = 0.9183\nsamples = 3\nvalue = [0, 2, 1]"] ;
37 -> 38 ;
39 [label="entropy = 1.0\nsamples = 2\nvalue = [0, 1, 1]"] ;
38 -> 39 ;
40 [label="entropy = 0.0\nsamples = 1\nvalue = [0, 1, 0]"] ;
38 -> 40 ;
41 [label="entropy = 0.0\nsamples = 1\nvalue = [0, 0, 1]"] ;
37 -> 41 ;
42 [label="X[0] <= 6.15\nentropy = 0.8113\nsamples = 4\nvalue = [0, 3, 1]"] ;
36 -> 42 ;
43 [label="entropy = 0.0\nsamples = 3\nvalue = [0, 3, 0]"] ;
42 -> 43 ;
44 [label="entropy = 0.0\nsamples = 1\nvalue = [0, 0, 1]"] ;
42 -> 44 ;
45 [label="entropy = 0.0\nsamples = 3\nvalue = [0, 3, 0]"] ;
29 -> 45 ;
46 [label="X[0] <= 6.15\nentropy = 1.0\nsamples = 8\nvalue = [0, 4, 4]"] ;
28 -> 46 ;
47 [label="X[1] <= 3.1\nentropy = 0.9852\nsamples = 7\nvalue = [0, 4, 3]"] ;
46 -> 47 ;
48 [label="X[0] <= 5.95\nentropy = 0.971\nsamples = 5\nvalue = [0, 2, 3]"] ;
47 -> 48 ;
49 [label="entropy = 1.0\nsamples = 2\nvalue = [0, 1, 1]"] ;
48 -> 49 ;
50 [label="X[0] <= 6.05\nentropy = 0.9183\nsamples = 3\nvalue = [0, 1, 2]"] ;
48 -> 50 ;
51 [label="entropy = 0.0\nsamples = 1\nvalue = [0, 0, 1]"] ;
50 -> 51 ;
52 [label="entropy = 1.0\nsamples = 2\nvalue = [0, 1, 1]"] ;
50 -> 52 ;
53 [label="entropy = 0.0\nsamples = 2\nvalue = [0, 2, 0]"] ;
47 -> 53 ;
54 [label="entropy = 0.0\nsamples = 1\nvalue = [0, 0, 1]"] ;
46 -> 54 ;
55 [label="X[0] <= 7.05\nentropy = 0.8631\nsamples = 49\nvalue = [0, 14, 35]"] ;
15 -> 55 ;
56 [label="X[1] <= 2.4\nentropy = 0.9418\nsamples = 39\nvalue = [0, 14, 25]"] ;
55 -> 56 ;
57 [label="entropy = 0.0\nsamples = 1\nvalue = [0, 1, 0]"] ;
56 -> 57 ;
58 [label="X[0] <= 6.95\nentropy = 0.9268\nsamples = 38\nvalue = [0, 13, 25]"] ;
56 -> 58 ;
59 [label="X[0] <= 6.55\nentropy = 0.909\nsamples = 37\nvalue = [0, 12, 25]"] ;
58 -> 59 ;
60 [label="X[1] <= 2.6\nentropy = 0.8113\nsamples = 20\nvalue = [0, 5, 15]"] ;
59 -> 60 ;
61 [label="entropy = 1.0\nsamples = 2\nvalue = [0, 1, 1]"] ;
60 -> 61 ;
62 [label="X[1] <= 2.75\nentropy = 0.7642\nsamples = 18\nvalue = [0, 4, 14]"] ;
60 -> 62 ;
63 [label="entropy = 0.0\nsamples = 2\nvalue = [0, 0, 2]"] ;
62 -> 63 ;
64 [label="X[1] <= 3.35\nentropy = 0.8113\nsamples = 16\nvalue = [0, 4, 12]"] ;
62 -> 64 ;
65 [label="X[1] <= 3.15\nentropy = 0.8366\nsamples = 15\nvalue = [0, 4, 11]"] ;
64 -> 65 ;
66 [label="X[1] <= 2.95\nentropy = 0.7219\nsamples = 10\nvalue = [0, 2, 8]"] ;
65 -> 66 ;
67 [label="X[0] <= 6.45\nentropy = 0.9183\nsamples = 6\nvalue = [0, 2, 4]"] ;
66 -> 67 ;
68 [label="X[1] <= 2.85\nentropy = 0.7219\nsamples = 5\nvalue = [0, 1, 4]"] ;
67 -> 68 ;
69 [label="entropy = 0.0\nsamples = 3\nvalue = [0, 0, 3]"] ;
68 -> 69 ;
70 [label="X[0] <= 6.35\nentropy = 1.0\nsamples = 2\nvalue = [0, 1, 1]"] ;
68 -> 70 ;
71 [label="entropy = 0.0\nsamples = 1\nvalue = [0, 0, 1]"] ;
70 -> 71 ;
72 [label="entropy = 0.0\nsamples = 1\nvalue = [0, 1, 0]"] ;
70 -> 72 ;
73 [label="entropy = 0.0\nsamples = 1\nvalue = [0, 1, 0]"] ;
67 -> 73 ;
74 [label="entropy = 0.0\nsamples = 4\nvalue = [0, 0, 4]"] ;
66 -> 74 ;
75 [label="X[0] <= 6.45\nentropy = 0.971\nsamples = 5\nvalue = [0, 2, 3]"] ;
65 -> 75 ;
76 [label="X[0] <= 6.35\nentropy = 1.0\nsamples = 4\nvalue = [0, 2, 2]"] ;
75 -> 76 ;
77 [label="entropy = 1.0\nsamples = 2\nvalue = [0, 1, 1]"] ;
76 -> 77 ;
78 [label="entropy = 1.0\nsamples = 2\nvalue = [0, 1, 1]"] ;
76 -> 78 ;
79 [label="entropy = 0.0\nsamples = 1\nvalue = [0, 0, 1]"] ;
75 -> 79 ;
80 [label="entropy = 0.0\nsamples = 1\nvalue = [0, 0, 1]"] ;
64 -> 80 ;
81 [label="X[1] <= 3.15\nentropy = 0.9774\nsamples = 17\nvalue = [0, 7, 10]"] ;
59 -> 81 ;
82 [label="X[0] <= 6.65\nentropy = 0.9957\nsamples = 13\nvalue = [0, 7, 6]"] ;
81 -> 82 ;
83 [label="entropy = 0.0\nsamples = 2\nvalue = [0, 2, 0]"] ;
82 -> 83 ;
84 [label="X[1] <= 2.65\nentropy = 0.994\nsamples = 11\nvalue = [0, 5, 6]"] ;
82 -> 84 ;
85 [label="entropy = 0.0\nsamples = 1\nvalue = [0, 0, 1]"] ;
84 -> 85 ;
86 [label="X[1] <= 2.9\nentropy = 1.0\nsamples = 10\nvalue = [0, 5, 5]"] ;
84 -> 86 ;
87 [label="entropy = 0.0\nsamples = 1\nvalue = [0, 1, 0]"] ;
86 -> 87 ;
88 [label="X[0] <= 6.75\nentropy = 0.9911\nsamples = 9\nvalue = [0, 4, 5]"] ;
86 -> 88 ;
89 [label="X[1] <= 3.05\nentropy = 0.971\nsamples = 5\nvalue = [0, 3, 2]"] ;
88 -> 89 ;
90 [label="entropy = 1.0\nsamples = 2\nvalue = [0, 1, 1]"] ;
89 -> 90 ;
91 [label="entropy = 0.9183\nsamples = 3\nvalue = [0, 2, 1]"] ;
89 -> 91 ;
92 [label="X[1] <= 3.05\nentropy = 0.8113\nsamples = 4\nvalue = [0, 1, 3]"] ;
88 -> 92 ;
93 [label="entropy = 0.0\nsamples = 1\nvalue = [0, 0, 1]"] ;
92 -> 93 ;
94 [label="entropy = 0.9183\nsamples = 3\nvalue = [0, 1, 2]"] ;
92 -> 94 ;
95 [label="entropy = 0.0\nsamples = 4\nvalue = [0, 0, 4]"] ;
81 -> 95 ;
96 [label="entropy = 0.0\nsamples = 1\nvalue = [0, 1, 0]"] ;
58 -> 96 ;
97 [label="entropy = 0.0\nsamples = 10\nvalue = [0, 0, 10]"] ;
55 -> 97 ;
98 [label="X[0] <= 6.75\nentropy = 0.971\nsamples = 5\nvalue = [3, 0, 2]"] ;
14 -> 98 ;
99 [label="entropy = 0.0\nsamples = 3\nvalue = [3, 0, 0]"] ;
98 -> 99 ;
100 [label="entropy = 0.0\nsamples = 2\nvalue = [0, 0, 2]"] ;
98 -> 100 ;
}